digraph Tree {
node [shape=box] ;
0 [label="X[3] <= 0.5\ngini = 0.438\nsamples = 8000\nvalue = [5404, 2596]"] ;
1 [label="X[0] <= 44950.0\ngini = 0.49\nsamples = 4135\nvalue = [1780, 2355]"] ;
0 -> 1 [labeldistance=2.5, labelangle=45, headlabel="True"] ;
3 [label="X[1] <= 109.5\ngini = 0.433\nsamples = 1942\nvalue = [1326, 616]"] ;
1 -> 3 ;
9 [label="X[0] <= 32970.0\ngini = 0.387\nsamples = 1439\nvalue = [1062, 377]"] ;
3 -> 9 ;
11 [label="gini = 0.272\nsamples = 590\nvalue = [494, 96]"] ;
9 -> 11 ;
12 [label="gini = 0.443\nsamples = 849\nvalue = [568, 281]"] ;
9 -> 12 ;
10 [label="X[0] <= 32480.0\ngini = 0.499\nsamples = 503\nvalue = [264, 239]"] ;
3 -> 10 ;
13 [label="gini = 0.442\nsamples = 167\nvalue = [112, 55]"] ;
10 -> 13 ;
14 [label="gini = 0.495\nsamples = 336\nvalue = [152, 184]"] ;
10 -> 14 ;
4 [label="X[0] <= 67420.0\ngini = 0.328\nsamples = 2193\nvalue = [454, 1739]"] ;
1 -> 4 ;
5 [label="X[1] <= 100.5\ngini = 0.413\nsamples = 1561\nvalue = [454, 1107]"] ;
4 -> 5 ;
7 [label="gini = 0.494\nsamples = 518\nvalue = [231, 287]"] ;
5 -> 7 ;
8 [label="gini = 0.336\nsamples = 1043\nvalue = [223, 820]"] ;
5 -> 8 ;
6 [label="gini = 0.0\nsamples = 632\nvalue = [0, 632]"] ;
4 -> 6 ;
2 [label="gini = 0.117\nsamples = 3865\nvalue = [3624, 241]"] ;
0 -> 2 [labeldistance=2.5, labelangle=-45, headlabel="False"] ;
}